setpoint,position,motor control input,current
0.000000,-1.000000,-0.090000,-0.116680
0.000000,-1.000000,-0.090000,-0.150859
0.000000,-1.000000,-0.090000,-0.121562
0.000000,-1.000000,-0.090000,-0.145977
0.000000,-1.000000,-0.090000,-0.141094
0.000000,-2.000000,-0.120000,-0.141094
0.000000,-1.000000,-0.090000,-0.355937
0.000000,-1.000000,-0.090000,-0.053203
0.000000,-1.000000,-0.090000,-0.150859
0.000000,-1.000000,-0.090000,-0.165508
0.000000,-1.000000,-0.090000,-0.111797
0.000000,-1.000000,-0.090000,-0.145977
0.000000,-1.000000,-0.090000,-0.131328
0.000000,-2.000000,-0.120000,-0.150859
0.000000,-1.000000,-0.090000,-0.360820
0.000000,-1.000000,-0.090000,-0.053203
0.000000,-1.000000,-0.090000,-0.155742
0.000000,-1.000000,-0.090000,-0.150859
0.000000,-1.000000,-0.090000,-0.111797
0.000000,-1.000000,-0.090000,-0.165508
0.000000,-1.000000,-0.090000,-0.126445
0.000000,-1.000000,-0.090000,-0.141094
0.000000,-1.000000,-0.090000,-0.131328
0.000000,-2.000000,-0.120000,-0.150859
0.000000,-1.000000,-0.090000,-0.360820
0.000000,-1.000000,-0.090000,-0.058086
0.000000,-1.000000,-0.090000,-0.155742
0.000000,-1.000000,-0.090000,-0.160625
0.000000,-1.000000,-0.090000,-0.116680
0.000000,-1.000000,-0.090000,-0.160625
0.000000,-1.000000,-0.090000,-0.121562
0.000000,-1.000000,-0.090000,-0.150859
0.000000,-1.000000,-0.090000,-0.136211
0.000000,-1.000000,-0.090000,-0.141094
0.000000,-1.000000,-0.090000,-0.141094
0.000000,-1.000000,-0.090000,-0.150859
0.000000,-1.000000,-0.090000,-0.126445
0.000000,-1.000000,-0.090000,-0.160625
0.000000,-1.000000,-0.090000,-0.121562
0.000000,-1.000000,-0.090000,-0.150859
0.000000,-1.000000,-0.090000,-0.116680
0.000000,-1.000000,-0.090000,-0.136211
0.000000,-1.000000,-0.090000,-0.136211
0.000000,-2.000000,-0.120000,-0.155742
0.000000,-1.000000,-0.090000,-0.360820
0.000000,-1.000000,-0.090000,-0.062969
0.000000,-1.000000,-0.090000,-0.155742
0.000000,-1.000000,-0.090000,-0.165508
0.000000,-1.000000,-0.090000,-0.116680
0.000000,-1.000000,-0.090000,-0.150859
0.000000,-1.000000,-0.090000,-0.121562
0.000000,-1.000000,-0.090000,-0.145977
0.000000,-1.000000,-0.090000,-0.141094
0.000000,-1.000000,-0.090000,-0.141094
0.000000,-1.000000,-0.090000,-0.136211
0.000000,-1.000000,-0.090000,-0.150859
0.000000,-1.000000,-0.090000,-0.121562
0.000000,-1.000000,-0.090000,-0.160625
0.000000,-1.000000,-0.090000,-0.121562
0.000000,-1.000000,-0.090000,-0.141094
0.000000,-1.000000,-0.090000,-0.126445
0.000000,-2.000000,-0.120000,-0.145977
0.000000,-1.000000,-0.090000,-0.355937
0.000000,-2.000000,-0.120000,-0.048320
0.000000,-1.000000,-0.090000,-0.380352
0.000000,-1.000000,-0.090000,-0.062969
0.000000,-1.000000,-0.090000,-0.145977
0.000000,-1.000000,-0.090000,-0.160625
0.000000,-1.000000,-0.090000,-0.121562
0.000000,-1.000000,-0.090000,-0.155742
0.000000,-1.000000,-0.090000,-0.131328
0.000000,-2.000000,-0.120000,-0.141094
0.000000,-1.000000,-0.090000,-0.365703
0.000000,-1.000000,-0.090000,-0.048320
0.000000,-1.000000,-0.090000,-0.160625
0.000000,-1.000000,-0.090000,-0.145977
0.000000,-1.000000,-0.090000,-0.126445
0.000000,-1.000000,-0.090000,-0.150859
0.000000,-1.000000,-0.090000,-0.126445
0.000000,-1.000000,-0.090000,-0.145977
0.000000,-1.000000,-0.090000,-0.136211
0.000000,-2.000000,-0.120000,-0.141094
0.000000,-1.000000,-0.090000,-0.360820
0.000000,-1.000000,-0.090000,-0.048320
0.000000,-1.000000,-0.090000,-0.160625
0.000000,-1.000000,-0.090000,-0.145977
0.000000,-1.000000,-0.090000,-0.121562
0.000000,-1.000000,-0.090000,-0.160625
0.000000,-1.000000,-0.090000,-0.121562
0.000000,-1.000000,-0.090000,-0.145977
0.000000,-1.000000,-0.090000,-0.141094
0.000000,-2.000000,-0.120000,-0.141094
0.000000,-1.000000,-0.090000,-0.370586
0.000000,-1.000000,-0.090000,-0.048320
0.000000,-1.000000,-0.090000,-0.165508
0.000000,-1.000000,-0.090000,-0.150859
0.000000,-1.000000,-0.090000,-0.121562
0.000000,-1.000000,-0.090000,-0.165508
0.000000,-1.000000,-0.090000,-0.126445
0.000000,-1.000000,-0.090000,-0.141094
0.000000,-1.000000,-0.090000,-0.141094
0.000000,-2.000000,-0.120000,-0.136211
0.000000,-1.000000,-0.090000,-0.360820
0.000000,-1.000000,-0.090000,-0.043437
0.000000,-1.000000,-0.090000,-0.160625
0.000000,-1.000000,-0.090000,-0.155742
0.000000,-1.000000,-0.090000,-0.121562
0.000000,-1.000000,-0.090000,-0.160625
0.000000,-1.000000,-0.090000,-0.131328
0.000000,-1.000000,-0.090000,-0.145977
0.000000,-1.000000,-0.090000,-0.141094
0.000000,-2.000000,-0.120000,-0.141094
0.000000,-1.000000,-0.090000,-0.360820
0.000000,-1.000000,-0.090000,-0.062969
0.000000,-1.000000,-0.090000,-0.155742
0.000000,-1.000000,-0.090000,-0.155742
0.000000,-1.000000,-0.090000,-0.121562
0.000000,-1.000000,-0.090000,-0.160625
0.000000,-1.000000,-0.090000,-0.131328
0.000000,-1.000000,-0.090000,-0.145977
0.000000,-1.000000,-0.090000,-0.141094
0.000000,-1.000000,-0.090000,-0.141094
0.000000,-1.000000,-0.090000,-0.141094
0.000000,-1.000000,-0.090000,-0.136211
0.000000,-2.000000,-0.120000,-0.141094
0.000000,-1.000000,-0.090000,-0.365703
0.000000,-1.000000,-0.090000,-0.038555
0.000000,-1.000000,-0.090000,-0.180156
0.000000,-1.000000,-0.090000,-0.150859
0.000000,-1.000000,-0.090000,-0.136211
0.000000,-1.000000,-0.090000,-0.160625
0.000000,-1.000000,-0.090000,-0.126445
0.000000,-1.000000,-0.090000,-0.155742
0.000000,-1.000000,-0.090000,-0.136211
0.000000,-2.000000,-0.120000,-0.141094
0.000000,-1.000000,-0.090000,-0.365703
0.000000,-1.000000,-0.090000,-0.053203
0.000000,-1.000000,-0.090000,-0.170391
0.000000,-1.000000,-0.090000,-0.150859
0.000000,-1.000000,-0.090000,-0.126445
0.000000,-1.000000,-0.090000,-0.175273
0.000000,-1.000000,-0.090000,-0.126445
0.000000,-1.000000,-0.090000,-0.160625
0.000000,-1.000000,-0.090000,-0.141094
0.000000,-1.000000,-0.090000,-0.145977
0.000000,-1.000000,-0.090000,-0.141094
0.000000,-1.000000,-0.090000,-0.141094
0.000000,-1.000000,-0.090000,-0.145977
0.000000,-1.000000,-0.090000,-0.145977
0.000000,-1.000000,-0.090000,-0.131328
0.000000,-1.000000,-0.090000,-0.170391
0.000000,-1.000000,-0.090000,-0.126445
0.000000,-1.000000,-0.090000,-0.155742
0.000000,-1.000000,-0.090000,-0.136211
0.000000,-1.000000,-0.090000,-0.145977
0.000000,-1.000000,-0.090000,-0.136211
0.000000,-1.000000,-0.090000,-0.150859
0.000000,-1.000000,-0.090000,-0.131328
0.000000,-1.000000,-0.090000,-0.160625
0.000000,-1.000000,-0.090000,-0.126445
0.000000,-1.000000,-0.090000,-0.160625
0.000000,-1.000000,-0.090000,-0.131328
0.000000,-1.000000,-0.090000,-0.155742
0.000000,-1.000000,-0.090000,-0.141094
0.000000,-2.000000,-0.120000,-0.141094
0.000000,-1.000000,-0.090000,-0.360820
0.000000,-1.000000,-0.090000,-0.053203
0.000000,-1.000000,-0.090000,-0.155742
0.000000,-1.000000,-0.090000,-0.160625
0.000000,-1.000000,-0.090000,-0.121562
0.000000,-1.000000,-0.090000,-0.150859
0.000000,-1.000000,-0.090000,-0.121562
0.000000,-1.000000,-0.090000,-0.145977
0.000000,-1.000000,-0.090000,-0.141094
0.000000,-2.000000,-0.120000,-0.141094
0.000000,-1.000000,-0.090000,-0.360820
0.000000,-1.000000,-0.090000,-0.053203
0.000000,-1.000000,-0.090000,-0.150859
0.000000,-1.000000,-0.090000,-0.160625
0.000000,-1.000000,-0.090000,-0.111797
0.000000,-1.000000,-0.090000,-0.150859
0.000000,-1.000000,-0.090000,-0.131328
60.000000,-2.000000,-1.920000,-0.150859
60.000000,-1.000000,-1.890000,-2.265117
60.000000,-2.000000,-1.920000,-0.995586
60.000000,-1.000000,-1.890000,-1.278789
60.000000,-1.000000,-1.890000,-1.332500
60.000000,0.000000,-1.860000,-1.449687
60.000000,0.000000,-1.860000,-1.234844
60.000000,1.000000,-1.830000,-1.425273
60.000000,2.000000,-1.800000,-1.137187
60.000000,3.000000,-1.770000,-1.186016
60.000000,4.000000,-1.740000,-1.015117
60.000000,6.000000,-1.680000,-0.990703
60.000000,6.000000,-1.680000,-0.912578
60.000000,7.000000,-1.650000,-0.814922
60.000000,9.000000,-1.590000,-0.819805
60.000000,10.000000,-1.560000,-0.775859
60.000000,12.000000,-1.500000,-0.770977
60.000000,13.000000,-1.470000,-0.717266
60.000000,14.000000,-1.440000,-0.707500
60.000000,16.000000,-1.380000,-0.707500
60.000000,16.000000,-1.380000,-0.717266
60.000000,18.000000,-1.320000,-0.712383
60.000000,19.000000,-1.290000,-0.697734
60.000000,21.000000,-1.230000,-0.697734
60.000000,23.000000,-1.170000,-0.707500
60.000000,24.000000,-1.140000,-0.673320
60.000000,26.000000,-1.080000,-0.678203
60.000000,27.000000,-1.050000,-0.668437
60.000000,29.000000,-0.990000,-0.624492
60.000000,31.000000,-0.930000,-0.658672
60.000000,31.000000,-0.930000,-0.648906
60.000000,32.000000,-0.900000,-0.653789
60.000000,33.000000,-0.870000,-0.644023
60.000000,35.000000,-0.810000,-0.634258
60.000000,37.000000,-0.750000,-0.653789
60.000000,38.000000,-0.720000,-0.644023
60.000000,40.000000,-0.660000,-0.634258
60.000000,41.000000,-0.630000,-0.468242
60.000000,42.000000,-0.600000,-0.409648
60.000000,44.000000,-0.540000,-0.336406
60.000000,45.000000,-0.510000,-0.141094
60.000000,47.000000,-0.450000,-0.160625
60.000000,48.000000,-0.420000,0.020039
60.000000,48.000000,-0.420000,-0.019023
60.000000,50.000000,-0.360000,-0.126445
60.000000,50.000000,-0.360000,0.088398
60.000000,52.000000,-0.300000,-0.082500
60.000000,52.000000,-0.300000,0.107930
60.000000,53.000000,-0.270000,-0.023906
60.000000,54.000000,-0.240000,0.015156
60.000000,54.000000,-0.240000,0.054219
60.000000,55.000000,-0.210000,-0.038555
60.000000,55.000000,-0.210000,0.020039
60.000000,55.000000,-0.210000,-0.048320
60.000000,56.000000,-0.180000,-0.155742
60.000000,56.000000,-0.180000,0.029805
60.000000,57.000000,-0.150000,-0.165508
60.000000,57.000000,-0.150000,0.000000
60.000000,58.000000,-0.120000,-0.102031
60.000000,58.000000,-0.120000,0.020039
60.000000,58.000000,-0.120000,-0.048320
60.000000,58.000000,-0.120000,-0.141094
60.000000,58.000000,-0.120000,-0.136211
60.000000,58.000000,-0.120000,-0.136211
60.000000,58.000000,-0.120000,-0.209453
60.000000,58.000000,-0.120000,-0.185039
60.000000,58.000000,-0.120000,-0.268047
60.000000,58.000000,-0.120000,-0.224102
60.000000,58.000000,-0.120000,-0.297344
60.000000,58.000000,-0.120000,-0.243633
60.000000,58.000000,-0.120000,-0.277812
60.000000,58.000000,-0.120000,-0.307109
60.000000,58.000000,-0.120000,-0.302227
60.000000,58.000000,-0.120000,-0.302227
60.000000,58.000000,-0.120000,-0.311992
60.000000,58.000000,-0.120000,-0.277812
60.000000,58.000000,-0.120000,-0.292461
60.000000,58.000000,-0.120000,-0.277812
60.000000,58.000000,-0.120000,-0.268047
60.000000,58.000000,-0.120000,-0.268047
60.000000,58.000000,-0.120000,-0.321758
60.000000,58.000000,-0.120000,-0.253398
60.000000,58.000000,-0.120000,-0.316875
60.000000,58.000000,-0.120000,-0.302227
60.000000,58.000000,-0.120000,-0.321758
60.000000,58.000000,-0.120000,-0.307109
60.000000,58.000000,-0.120000,-0.321758
60.000000,58.000000,-0.120000,-0.316875
60.000000,58.000000,-0.120000,-0.316875
60.000000,58.000000,-0.120000,-0.321758
60.000000,58.000000,-0.120000,-0.311992
60.000000,58.000000,-0.120000,-0.321758
60.000000,58.000000,-0.120000,-0.321758
60.000000,58.000000,-0.120000,-0.302227
60.000000,58.000000,-0.120000,-0.336406
60.000000,58.000000,-0.120000,-0.307109
60.000000,58.000000,-0.120000,-0.326641
60.000000,58.000000,-0.120000,-0.321758
60.000000,58.000000,-0.120000,-0.321758
60.000000,58.000000,-0.120000,-0.321758
60.000000,58.000000,-0.120000,-0.316875
60.000000,58.000000,-0.120000,-0.321758
60.000000,58.000000,-0.120000,-0.326641
60.000000,58.000000,-0.120000,-0.307109
60.000000,58.000000,-0.120000,-0.331523
60.000000,58.000000,-0.120000,-0.307109
60.000000,58.000000,-0.120000,-0.316875
60.000000,58.000000,-0.120000,-0.321758
60.000000,58.000000,-0.120000,-0.307109
60.000000,58.000000,-0.120000,-0.331523
60.000000,58.000000,-0.120000,-0.311992
60.000000,58.000000,-0.120000,-0.316875
60.000000,58.000000,-0.120000,-0.321758
60.000000,58.000000,-0.120000,-0.302227
60.000000,58.000000,-0.120000,-0.331523
60.000000,58.000000,-0.120000,-0.311992
60.000000,58.000000,-0.120000,-0.321758
60.000000,58.000000,-0.120000,-0.326641
60.000000,58.000000,-0.120000,-0.307109
60.000000,58.000000,-0.120000,-0.331523
60.000000,58.000000,-0.120000,-0.316875
60.000000,58.000000,-0.120000,-0.321758
60.000000,59.000000,-0.090000,-0.326641
60.000000,58.000000,-0.120000,-0.087383
60.000000,58.000000,-0.120000,-0.419414
60.000000,58.000000,-0.120000,-0.287578
60.000000,58.000000,-0.120000,-0.321758
60.000000,58.000000,-0.120000,-0.331523
60.000000,58.000000,-0.120000,-0.307109
60.000000,58.000000,-0.120000,-0.326641
60.000000,58.000000,-0.120000,-0.316875
60.000000,58.000000,-0.120000,-0.316875
60.000000,59.000000,-0.090000,-0.326641
60.000000,58.000000,-0.120000,-0.087383
60.000000,58.000000,-0.120000,-0.414531
60.000000,58.000000,-0.120000,-0.292461
60.000000,58.000000,-0.120000,-0.321758
60.000000,58.000000,-0.120000,-0.331523
60.000000,58.000000,-0.120000,-0.307109
60.000000,58.000000,-0.120000,-0.326641
60.000000,58.000000,-0.120000,-0.321758
60.000000,58.000000,-0.120000,-0.311992
60.000000,58.000000,-0.120000,-0.341289
60.000000,58.000000,-0.120000,-0.302227
60.000000,58.000000,-0.120000,-0.311992
60.000000,58.000000,-0.120000,-0.311992
60.000000,58.000000,-0.120000,-0.326641
60.000000,58.000000,-0.120000,-0.336406
60.000000,58.000000,-0.120000,-0.307109
60.000000,58.000000,-0.120000,-0.336406
60.000000,58.000000,-0.120000,-0.316875
60.000000,58.000000,-0.120000,-0.326641
60.000000,58.000000,-0.120000,-0.316875
60.000000,58.000000,-0.120000,-0.336406
60.000000,58.000000,-0.120000,-0.302227
60.000000,59.000000,-0.090000,-0.351055
60.000000,58.000000,-0.120000,-0.072734
60.000000,58.000000,-0.120000,-0.434062
60.000000,58.000000,-0.120000,-0.287578
60.000000,58.000000,-0.120000,-0.326641
60.000000,58.000000,-0.120000,-0.326641
60.000000,58.000000,-0.120000,-0.326641
60.000000,58.000000,-0.120000,-0.311992
60.000000,58.000000,-0.120000,-0.331523
60.000000,58.000000,-0.120000,-0.302227
60.000000,59.000000,-0.090000,-0.351055
60.000000,58.000000,-0.120000,-0.082500
60.000000,58.000000,-0.120000,-0.434062
60.000000,58.000000,-0.120000,-0.292461
60.000000,58.000000,-0.120000,-0.331523
60.000000,59.000000,-0.090000,-0.326641
60.000000,58.000000,-0.120000,-0.111797
60.000000,58.000000,-0.120000,-0.404766
60.000000,58.000000,-0.120000,-0.311992
60.000000,58.000000,-0.120000,-0.297344
60.000000,59.000000,-0.090000,-0.346172
60.000000,58.000000,-0.120000,-0.077617
60.000000,58.000000,-0.120000,-0.419414
60.000000,58.000000,-0.120000,-0.287578
60.000000,58.000000,-0.120000,-0.316875
60.000000,58.000000,-0.120000,-0.336406
60.000000,58.000000,-0.120000,-0.307109
60.000000,58.000000,-0.120000,-0.326641
60.000000,58.000000,-0.120000,-0.311992
60.000000,58.000000,-0.120000,-0.316875
60.000000,59.000000,-0.090000,-0.331523
60.000000,58.000000,-0.120000,-0.087383
60.000000,58.000000,-0.120000,-0.424297
60.000000,58.000000,-0.120000,-0.292461
60.000000,58.000000,-0.120000,-0.316875
60.000000,58.000000,-0.120000,-0.331523
60.000000,58.000000,-0.120000,-0.307109
60.000000,58.000000,-0.120000,-0.326641
60.000000,58.000000,-0.120000,-0.326641
60.000000,58.000000,-0.120000,-0.307109
60.000000,58.000000,-0.120000,-0.331523
60.000000,58.000000,-0.120000,-0.302227
60.000000,58.000000,-0.120000,-0.326641
60.000000,58.000000,-0.120000,-0.311992
60.000000,58.000000,-0.120000,-0.316875
60.000000,58.000000,-0.120000,-0.321758
60.000000,58.000000,-0.120000,-0.316875
60.000000,58.000000,-0.120000,-0.311992
60.000000,58.000000,-0.120000,-0.326641
60.000000,58.000000,-0.120000,-0.297344
60.000000,58.000000,-0.120000,-0.321758
60.000000,58.000000,-0.120000,-0.297344
60.000000,58.000000,-0.120000,-0.311992
60.000000,58.000000,-0.120000,-0.311992
60.000000,58.000000,-0.120000,-0.331523
60.000000,58.000000,-0.120000,-0.316875
60.000000,58.000000,-0.120000,-0.331523
60.000000,58.000000,-0.120000,-0.302227
60.000000,58.000000,-0.120000,-0.341289
60.000000,58.000000,-0.120000,-0.302227
60.000000,58.000000,-0.120000,-0.321758
60.000000,58.000000,-0.120000,-0.302227
60.000000,58.000000,-0.120000,-0.326641
60.000000,58.000000,-0.120000,-0.316875
60.000000,58.000000,-0.120000,-0.316875
60.000000,58.000000,-0.120000,-0.321758
60.000000,58.000000,-0.120000,-0.321758
60.000000,58.000000,-0.120000,-0.311992
60.000000,58.000000,-0.120000,-0.331523
60.000000,58.000000,-0.120000,-0.297344
60.000000,58.000000,-0.120000,-0.316875
60.000000,58.000000,-0.120000,-0.297344
60.000000,58.000000,-0.120000,-0.326641
60.000000,58.000000,-0.120000,-0.321758
60.000000,58.000000,-0.120000,-0.302227
60.000000,58.000000,-0.120000,-0.326641
60.000000,58.000000,-0.120000,-0.311992
60.000000,58.000000,-0.120000,-0.316875
60.000000,58.000000,-0.120000,-0.331523
60.000000,58.000000,-0.120000,-0.302227
60.000000,58.000000,-0.120000,-0.321758
60.000000,58.000000,-0.120000,-0.307109
60.000000,58.000000,-0.120000,-0.326641
60.000000,58.000000,-0.120000,-0.316875
60.000000,58.000000,-0.120000,-0.326641
60.000000,58.000000,-0.120000,-0.316875
60.000000,58.000000,-0.120000,-0.326641
60.000000,58.000000,-0.120000,-0.302227
60.000000,58.000000,-0.120000,-0.331523
60.000000,58.000000,-0.120000,-0.292461
60.000000,58.000000,-0.120000,-0.316875
60.000000,58.000000,-0.120000,-0.307109
60.000000,58.000000,-0.120000,-0.326641
60.000000,58.000000,-0.120000,-0.316875
60.000000,58.000000,-0.120000,-0.321758
60.000000,58.000000,-0.120000,-0.307109
60.000000,58.000000,-0.120000,-0.331523
60.000000,58.000000,-0.120000,-0.302227
60.000000,58.000000,-0.120000,-0.326641
60.000000,58.000000,-0.120000,-0.297344
60.000000,58.000000,-0.120000,-0.316875
60.000000,58.000000,-0.120000,-0.311992
60.000000,58.000000,-0.120000,-0.331523
60.000000,58.000000,-0.120000,-0.316875
60.000000,58.000000,-0.120000,-0.326641
60.000000,58.000000,-0.120000,-0.311992
60.000000,58.000000,-0.120000,-0.331523
60.000000,58.000000,-0.120000,-0.302227
60.000000,58.000000,-0.120000,-0.326641
60.000000,58.000000,-0.120000,-0.297344
60.000000,58.000000,-0.120000,-0.307109
60.000000,58.000000,-0.120000,-0.311992
60.000000,57.000000,-0.150000,-0.321758
60.000000,58.000000,-0.120000,-0.526836
60.000000,58.000000,-0.120000,-0.199687
60.000000,58.000000,-0.120000,-0.316875
60.000000,58.000000,-0.120000,-0.321758
60.000000,58.000000,-0.120000,-0.277812
60.000000,58.000000,-0.120000,-0.307109
60.000000,58.000000,-0.120000,-0.292461
60.000000,58.000000,-0.120000,-0.297344
60.000000,58.000000,-0.120000,-0.297344
60.000000,57.000000,-0.150000,-0.307109
60.000000,58.000000,-0.120000,-0.502422
60.000000,58.000000,-0.120000,-0.170391
60.000000,58.000000,-0.120000,-0.287578
60.000000,58.000000,-0.120000,-0.292461
60.000000,58.000000,-0.120000,-0.292461
60.000000,58.000000,-0.120000,-0.331523
60.000000,58.000000,-0.120000,-0.326641
60.000000,58.000000,-0.120000,-0.341289
60.000000,58.000000,-0.120000,-0.341289
60.000000,58.000000,-0.120000,-0.346172
60.000000,58.000000,-0.120000,-0.341289
60.000000,58.000000,-0.120000,-0.341289
60.000000,58.000000,-0.120000,-0.331523
60.000000,58.000000,-0.120000,-0.351055
60.000000,58.000000,-0.120000,-0.326641
60.000000,58.000000,-0.120000,-0.341289
60.000000,58.000000,-0.120000,-0.331523
60.000000,58.000000,-0.120000,-0.331523
60.000000,58.000000,-0.120000,-0.336406
60.000000,58.000000,-0.120000,-0.351055
60.000000,58.000000,-0.120000,-0.336406
60.000000,58.000000,-0.120000,-0.341289
60.000000,58.000000,-0.120000,-0.331523
60.000000,58.000000,-0.120000,-0.351055
60.000000,58.000000,-0.120000,-0.326641
60.000000,58.000000,-0.120000,-0.336406
60.000000,58.000000,-0.120000,-0.331523
60.000000,58.000000,-0.120000,-0.346172
